Layer 0 weights:
0.256414
-0.171670
-0.048479
0.072441
0.022266
0.120571
-0.088558
-0.204804
-0.053616
-0.149985
-0.083653
0.121967
0.053948
0.082899
-0.036921
0.148438
-0.295762
0.056355
0.189086
-0.164845
0.118079
-0.117014
0.027468
-0.169410
0.064257
-0.064285
0.153691
-0.000198
0.148372
-0.057836
-0.159107
0.237006
0.218920
-0.183041
-0.017984
-0.007271
-0.025823
-0.125234
0.034723
-0.210857
-0.129740
-0.146136
-0.024976
-0.099623
-0.151649
0.050779
-0.044661
0.085114
0.036311
0.013119
0.099580
-0.102315
-0.174545
-0.010018
-0.212063
0.063112
0.046924
0.041870
-0.035607
-0.185139
0.034281
-0.110309
0.068825
0.068203
-0.128882
-0.173927
-0.205051
0.137148
-0.025028
0.010277
0.086573
0.217756
-0.134737
-0.080211
-0.127075
-0.161104
0.195826
0.060871
-0.015017
-0.131021
0.033995
-0.200374
0.212147
-0.139468
0.080899
-0.012181
0.018197
0.107700
-0.003958
0.171366
-0.008821
-0.203447
-0.255819
0.030726
0.122502
0.148864
-0.083083
-0.143861
-0.073081
0.136842
-0.065107
0.092642
-0.177592
0.234840
-0.015205
-0.110184
0.118979
-0.165978
-0.051104
0.132816
-0.062819
0.188575
0.056608
0.065329
0.187981
0.129306
0.093571
-0.041424
0.031351
-0.268762
-0.000446
0.198067
-0.128360
-0.186933
0.244284
0.137460
0.012401
-0.136793
0.185176
-0.033680
0.262598
-0.130962
0.024061
0.195794
0.203090
0.054351
-0.184970
-0.095804
0.169226
0.002564
-0.031571
0.215405
0.165324
-0.021631
0.081179
-0.027847
0.059680
0.119519
0.091200
-0.206665
0.085882
-0.080033
-0.187959
0.119594
-0.241298
-0.132223
-0.118272
0.134449
0.109163
-0.181530
0.124029
-0.077678
0.074156
-0.045961
0.153192
-0.066583
-0.058620
-0.011656
-0.008446
-0.159714
-0.091874
0.072784
-0.215362
-0.159871
-0.006088
0.028204
0.015363
-0.118203
-0.106661
0.158978
-0.130688
-0.079422
-0.168319
-0.003845
-0.059943
-0.174640
0.195909
0.145532
-0.053748
-0.195794
-0.097038
0.207985
0.013389
0.018085
0.011784
0.074516
-0.040054
0.203179
0.154327
-0.132153
0.103088
-0.063575
0.138432
0.023597
-0.143857
0.005606
-0.096963
-0.094248
-0.263955
0.130378
0.101534
0.006207
-0.108767
-0.107989
-0.126836
0.040171
0.046120
0.003472
0.089704
0.019217
0.119208
0.047129
-0.086175
0.183804
-0.033749
0.020641
-0.097173
0.049780
-0.012426
0.022796
0.036058
0.003122
0.137734
0.013161
-0.034046
-0.075940
0.097939
-0.018369
-0.060677
0.125452
0.024408
0.002600
-0.018868
0.001628
-0.010285
0.017645
0.004705
-0.023058
0.027899
-0.012512
-0.006776
-0.005146
0.002548
-0.041179
-0.000105
-0.021916
-0.001980
-0.008685
0.019868
-0.004581
-0.004181
0.031115
0.045274
-0.017880
-0.025475
0.001198
-0.015827
-0.036536
-0.030067
-0.083586
0.010456
-0.061933
-0.014338
0.033715
0.030998
-0.036055
0.028703
0.005057
0.025299
0.038297
0.001693
-0.019258
-0.023290
0.038853
-0.036359
0.023858
0.067105
-0.062967
-0.096656
-0.280658
0.056038
0.167867
0.219844
-0.061781
0.154018
0.168987
0.055671
-0.102405
0.168287
-0.007346
-0.149138
-0.014679
0.025436
-0.154677
-0.069961
-0.008176
0.167498
0.157300
-0.027922
-0.023122
-0.136814
0.254375
0.255607
0.055076
-0.041212
-0.109581
-0.140696
0.066197
-0.131473
-0.057727
0.174153
-0.009247
-0.101066
0.118934
-0.020407
0.032373
-0.082921
-0.119833
-0.203584
0.161387
-0.037280
-0.268359
0.193343
-0.194414
-0.147173
-0.095287
0.149766
-0.280279
0.004851
-0.040775
0.236966
-0.139619
-0.035765
0.234883
-0.031865
0.022754
0.269562
0.050060
-0.100699
0.051597
-0.097862
-0.133216
0.141338
-0.052130
0.081872
0.105504
-0.166321
0.004348
0.034058
-0.031560
0.027591
0.040817
-0.208886
0.125455
-0.171252
-0.026399
-0.039463
-0.101635
-0.139219
0.019525
-0.048465
-0.096434
-0.063077
-0.225290
0.090552
-0.126676
0.016886
0.198609
0.092031
0.093649
0.129851
0.172219
0.140691
0.203643
0.157221
-0.167386
0.057807
0.102652
0.071381
0.049436
-0.119950
-0.138178
0.109421
-0.236737
-0.096327
-0.235559
0.119025
-0.021663
0.157827
-0.038787
-0.136596
-0.220308
0.068741
-0.028256
0.044323
-0.198455
0.036807
-0.057856
-0.206039
0.170874
0.004926
0.086690
-0.175289
0.226812
-0.133911
0.172914
-0.140178
-0.154718
0.139992
0.010480
0.018917
0.112784
-0.064018
-0.032460
0.056044
-0.183076
-0.173511
-0.005951
0.123143
-0.125460
0.066279
0.110796
-0.152208
-0.177071
-0.135442
0.193153
-0.063569
-0.036822
0.224115
0.106939
0.127664
0.041211
-0.177768
0.068190
0.105389
0.164895
0.108102
-0.098063
-0.294228
-0.095927
0.161796
0.068630
-0.213415
-0.172408
0.082282
0.017861
0.108235
-0.040732
-0.086131
-0.260992
0.106076
0.102213
0.033118
0.131387
-0.267680
0.023104
-0.212771
-0.077666
-0.208116
-0.106916
-0.026041
-0.009363
-0.275255
-0.078041
0.017318
0.092214
0.182401
-0.004599
0.019250
-0.277400
-0.037565
-0.001232
0.101396
-0.027215
-0.009959
-0.024156
-0.136225
-0.218000
-0.067413
0.006659
-0.187162
0.069165
0.175160
-0.180133
0.123439
0.116912
0.247863
-0.019599
0.074372
0.174807
0.029020
-0.188689
0.188749
-0.077612
-0.234417
0.038288
0.011567
0.132342
-0.156850
-0.003505
0.111055
0.085261
-0.095539
-0.197439
0.156856
0.213019
-0.085092
0.053227
-0.076026
-0.158092
-0.100759
0.054809
0.107036
-0.102181
0.015607
0.148143
-0.186525
-0.046458
-0.059503
-0.265456
-0.138538
0.237209
-0.181896
-0.071987
-0.172149
-0.060729
-0.255391
0.188106
0.024037
0.029500
-0.029177
-0.002762
-0.176785
0.172928
0.023002
-0.214406
0.011780
0.033913
-0.027395
0.331515
0.036660
0.128509
-0.092991
0.113845
-0.075239
0.031291
0.001316
0.144573
-0.109604
-0.145424
-0.072672
0.031265
-0.204430
-0.113256
0.179245
0.239146
-0.086136
-0.007710
-0.100722
-0.291591
0.138993
-0.278399
-0.073257
-0.243831
-0.020474
0.053048
0.065103
-0.262927
-0.205240
0.019714
0.176154
0.141276
-0.108875
-0.091510
0.029069
-0.017318
-0.017131
-0.091908
-0.006942
-0.132759
0.030869
-0.117192
-0.044789
0.051240
0.226454
0.177418
-0.044018
0.058598
0.060158
-0.077698
-0.214549
0.124096
-0.167647
0.012306
0.018380
0.117224
-0.035853
0.148532
-0.168519
-0.098909
-0.111482
0.000117
0.166772
-0.194248
0.009548
0.085520
-0.068285
-0.222165
-0.201055
-0.179382
-0.092445
0.110385
0.133045
-0.010836
0.278066
-0.078878
0.047212
-0.080475
0.275591
0.046345
-0.220643
-0.159021
-0.071778
0.208952
0.093426
0.054245
0.010977
0.167875
0.007927
0.011393
-0.208644
-0.033621
-0.059858
0.042245
0.115253
-0.091266
-0.070656
-0.089683
0.103700
0.084474
-0.227959
0.150835
-0.190487
-0.031351
0.092810
-0.082241
-0.011060
0.070227
-0.006142
-0.055648
-0.110088
-0.235537
-0.232892
-0.152707
-0.229720
0.145201
0.312004
0.066616
0.071675
0.070755
-0.047154
-0.207556
-0.111655
0.050869
0.107889
0.196330
-0.166289
-0.124865
0.135879
0.187529
-0.169736
0.033083
-0.175030
-0.150491
-0.182527
-0.095430
-0.163146
-0.007383
-0.090987
-0.026505
-0.216583
-0.147153
0.233865
-0.225627
-0.093615
0.101444
0.178170
0.132383
0.249713
-0.193622
-0.172682
0.040842
-0.077746
-0.059550
0.256770
0.116159
0.124903
-0.113583
0.135818
0.210354
0.225933
-0.238425
-0.009117
-0.051602
0.089333
-0.014275
0.084515
-0.120302
0.080736
0.061524
0.289156
0.253858
0.018065
-0.033826
-0.285744
-0.088733
-0.040802
0.029924
0.190144
0.203752
0.145683
0.095312
-0.064745
-0.051461
0.082977
-0.128959
0.019050
-0.067348
0.082095
-0.125440
-0.261603
0.013068
-0.043465
0.044913
-0.188062
0.139713
0.316623
-0.004587
0.086793
-0.103590
-0.055765
-0.063866
-0.133813
0.078445
-0.208068
-0.108339
-0.016242
-0.043185
-0.114386
0.215078
-0.076511
-0.014438
-0.141413
0.060776
0.067094
-0.026258
0.088896
-0.023356
0.020025
0.063233
-0.234697
0.074271
0.268425
0.095116
0.111582
0.017913
-0.051424
-0.141253
-0.012521
-0.095613
-0.157854
-0.064182
0.109614
0.176373
-0.176223
0.134815
-0.116318
-0.160277
-0.009556
-0.088048
-0.013994
0.244148
0.154887
-0.021135
-0.148642
0.102520
-0.101776
-0.092728
0.048238
0.201118
0.068322
-0.027815
0.034419
0.298574
0.280809
0.000258
0.137586
0.022534
0.117991
0.134367
-0.170981
0.161695
0.024796
0.178704
-0.183727
-0.073045
-0.037562
-0.172448
0.072425
0.113749
0.017012
-0.022844
0.106809
-0.051624
0.087694
-0.094177
0.009803
0.061580
0.054177
0.136848
-0.090119
-0.060107
-0.127916
0.187430
-0.279462
0.059636
-0.044060
0.219999
0.327758
0.001253
-0.008480
-0.134167
-0.142818
-0.157125
0.255807
-0.075485
0.127491
0.156318
0.200539
0.001774
-0.125193
0.278452
-0.065840
0.138530
-0.247861
-0.026028
0.173877
-0.083744
0.196217
0.049159
-0.068653
-0.201166
-0.070021
-0.005469
Layer 1 weights:
-0.046294
-0.070769
-0.009626
0.015632
0.070761
0.118871
0.259620
-0.293609
0.115815
0.218192
0.290298
0.167923
-0.171992
0.114039
0.161283
-0.006711
-0.092772
-0.040894
-0.055456
-0.098652
0.070356
0.141645
0.079857
-0.076328
-0.011074
-0.291520
0.051720
0.017412
0.144351
-0.021040
-0.007013
0.047244
0.148790
-0.014242
0.153014
0.013680
0.086189
-0.162019
-0.021152
0.011781
0.064311
0.038881
-0.334880
-0.164234
-0.018750
-0.011105
0.009913
-0.093739
0.135538
0.032166
-0.073765
-0.043502
0.139658
-0.081772
0.000836
-0.090467
0.081138
-0.079002
-0.131448
-0.070394
-0.047442
0.035643
0.258548
0.186004
0.178299
0.116937
-0.122659
-0.052046
-0.067900
0.100514
0.070225
-0.013978
-0.162752
-0.136299
0.071832
-0.002335
-0.171273
0.152602
-0.025572
-0.290750
0.026111
-0.096608
-0.136112
0.025500
-0.064913
-0.130775
0.256628
-0.174606
0.074095
-0.080243
-0.021953
-0.263154
-0.067542
-0.178066
-0.124384
-0.103730
-0.036381
-0.100049
0.158023
0.109353
-0.107337
0.161546
-0.019523
0.013493
0.227946
0.100006
-0.004177
0.025552
0.086553
0.038405
-0.037359
0.111653
-0.031566
-0.212916
0.029671
0.003290
0.312217
0.083764
-0.103237
-0.023583
0.113360
-0.169426
0.080950
0.171043
-0.049772
-0.082807
0.081978
0.054730
-0.010930
0.066659
0.131395
-0.112323
-0.033209
0.168039
-0.052569
-0.052624
0.059961
0.202919
0.015859
-0.024280
0.104804
-0.067875
-0.283665
0.132400
-0.032184
-0.138841
-0.201308
-0.051412
-0.148827
0.082435
0.152039
-0.014471
-0.089684
-0.050185
0.036671
-0.160583
0.128721
0.197345
-0.229832
0.262226
0.162522
0.053722
0.057779
-0.153970
-0.053655
0.126730
0.164583
-0.212853
0.073426
0.035987
0.422951
0.068423
-0.133364
-0.064974
0.104205
0.107572
0.168277
-0.049113
0.173845
-0.085847
0.157474
-0.033884
0.188149
-0.018110
0.088179
0.029897
0.009133
0.137530
0.182143
-0.268516
-0.028917
-0.045465
0.013449
-0.114076
-0.125055
-0.138047
0.013474
0.298492
-0.088558
0.108538
0.244763
0.103546
0.256398
0.036836
0.063422
-0.006193
-0.012598
0.180465
-0.141755
0.091111
0.080720
-0.038461
0.245111
0.167951
0.033379
0.020348
-0.102064
-0.029522
0.003400
-0.118170
0.055665
0.114426
-0.101907
0.152131
0.323818
0.082943
0.094365
0.162669
-0.150943
0.080776
0.067676
0.189679
-0.122640
0.130176
-0.102985
0.079925
0.049766
0.075162
-0.136111
0.120674
0.077821
0.091410
0.025591
0.020994
0.132977
-0.158258
0.109062
0.212199
0.117992
-0.125922
0.132700
0.207859
-0.038582
-0.022222
0.019401
-0.137697
0.051942
-0.080337
0.033837
-0.018912
-0.000477
-0.166695
-0.021515
0.167808
0.081537
0.220332
-0.265793
0.061427
0.200772
0.087024
-0.082407
-0.043936
-0.276785
-0.175485
0.078845
0.182545
-0.133654
0.253745
-0.035412
0.108656
-0.070655
0.213819
-0.255057
-0.076327
0.125378
-0.071950
-0.158868
0.067792
0.112346
-0.013004
-0.179123
-0.224676
0.006115
-0.281208
0.117929
-0.129238
-0.118778
0.185833
0.088511
-0.083129
0.137053
-0.256933
0.129967
0.121094
-0.127272
0.063776
-0.160362
-0.275087
-0.144564
0.017257
0.246244
-0.096552
-0.000244
0.009733
-0.024890
-0.066285
0.049288
0.050024
0.038529
0.024274
0.049894
0.071660
-0.126978
0.008050
-0.022473
0.130897
0.168562
0.089556
-0.013150
-0.053095
-0.083584
0.049848
-0.024639
0.089827
-0.041762
-0.137801
0.033499
0.209892
-0.134706
-0.133942
0.049299
0.029823
0.027494
-0.105772
-0.126057
-0.019966
0.121973
0.143203
0.116114
-0.212344
0.024894
-0.307544
0.046832
0.136241
-0.155695
0.118808
0.159838
-0.156012
0.142746
-0.062709
-0.023381
0.000594
-0.141610
-0.102665
0.015968
-0.098896
0.012835
-0.151982
0.090187
0.230337
0.097394
0.035990
0.065445
-0.062874
-0.045865
0.054445
0.063381
-0.245365
0.003839
0.060919
-0.023769
-0.048004
0.149100
-0.063355
0.035549
-0.002769
-0.094188
-0.058886
0.020457
0.092495
0.099562
-0.051082
0.107053
0.146684
0.052817
-0.044782
0.194895
-0.068672
0.071177
0.152524
-0.105464
0.204808
0.038252
-0.032175
0.103177
0.286608
-0.045774
-0.030152
-0.098423
-0.077870
0.048707
-0.080002
-0.002109
-0.046590
0.065419
-0.228934
-0.043942
-0.173293
0.081650
-0.045605
-0.019278
-0.031556
0.197280
0.065665
-0.013648
-0.141594
0.041276
0.034444
0.189368
-0.099303
0.120450
-0.137297
-0.243320
0.100350
-0.095252
-0.027493
-0.041382
0.002928
-0.064636
-0.146128
0.054806
0.079372
-0.051400
-0.099382
-0.275697
-0.093407
0.064346
0.058507
0.035780
-0.093779
0.078193
0.193317
0.137393
0.139522
-0.014517
0.033406
-0.041023
0.055126
-0.224969
-0.121130
-0.007356
-0.145520
-0.035766
-0.228144
0.054664
-0.063197
0.055317
-0.078242
-0.136229
-0.137881
-0.018555
0.032280
-0.263346
0.014470
0.071304
-0.047014
0.084559
0.030783
-0.171485
0.003082
-0.173823
0.011352
-0.102236
0.042658
0.026581
-0.059870
-0.053255
-0.146114
0.090666
-0.157276
0.118421
0.153274
0.171457
-0.016441
-0.308812
-0.193425
0.191205
-0.039389
0.027845
0.082672
0.096448
0.059129
0.074398
0.068102
-0.049809
0.138574
0.054548
0.116115
-0.085802
0.031140
-0.136173
-0.058813
0.089955
-0.057100
0.238848
-0.022472
0.172345
-0.155459
0.047214
-0.037800
-0.060907
-0.015779
0.117331
0.025919
-0.133709
-0.033234
-0.046616
-0.166881
0.015743
-0.195081
-0.019693
0.016892
0.010895
0.010615
-0.068486
-0.110154
-0.059211
0.096449
-0.086666
-0.011520
0.141323
0.099557
0.020050
0.143750
0.080461
0.041786
-0.005576
0.117306
0.197901
-0.100885
0.188322
0.208347
-0.196130
0.086724
0.167476
0.275700
0.107448
0.062237
-0.051871
0.036719
0.130980
-0.047240
0.108635
-0.120660
0.152654
0.151932
0.110480
-0.023536
-0.104364
-0.127522
0.058798
0.040165
-0.220166
0.135521
-0.072835
-0.115526
0.045069
-0.045401
-0.056181
0.219631
-0.034064
-0.027148
-0.128390
0.131813
-0.159225
-0.010167
0.010064
-0.319917
0.007313
-0.075886
-0.107911
-0.241987
0.149796
-0.110006
0.064042
-0.139888
-0.029459
-0.166423
0.013435
-0.109602
0.131212
-0.023457
-0.032408
0.063251
-0.144650
-0.172334
0.034197
0.084613
0.050742
-0.126369
0.027564
0.122724
0.081593
-0.191560
0.056576
0.149192
-0.066365
0.190487
-0.031669
-0.069465
0.039055
-0.054340
-0.068382
-0.035450
-0.063207
0.000164
-0.363581
-0.129721
0.130999
-0.043759
-0.030036
-0.089594
-0.085151
-0.090557
0.061270
-0.026913
-0.154168
0.007633
-0.113135
-0.051704
0.066449
-0.100276
-0.330170
0.135605
0.081334
-0.063105
-0.125525
-0.186683
-0.053681
0.038759
0.181261
-0.044336
0.159257
-0.139602
0.033651
0.022102
0.011897
-0.001211
0.032098
-0.167147
0.012486
-0.134870
-0.021768
-0.099709
0.109408
0.040920
-0.000393
-0.034302
0.001496
0.070480
0.029157
0.132572
0.127489
-0.120464
0.041217
0.251535
-0.020583
-0.049737
-0.019544
0.085938
-0.053473
-0.217620
-0.230629
-0.017797
-0.232154
0.031771
-0.019951
-0.065899
-0.084968
-0.012457
0.182602
-0.117733
0.059631
-0.058694
0.065691
0.091862
0.156985
-0.064689
0.065901
0.204934
-0.070710
-0.098967
-0.100772
0.050774
-0.051124
0.184721
0.015964
0.017161
0.060741
0.165482
-0.051532
-0.170528
0.023618
-0.068633
-0.056857
0.009893
0.012747
0.070098
-0.008912
0.171336
0.098535
-0.041438
-0.195671
-0.142564
-0.026240
-0.000239
0.126197
-0.041639
0.200458
-0.014591
-0.149959
0.080618
-0.127816
-0.277632
0.172609
-0.198825
0.106996
0.190140
-0.167456
0.211188
0.008691
-0.261816
0.055057
0.098059
0.085845
0.074270
0.316449
-0.068681
-0.082794
-0.102336
0.179521
0.061543
0.172674
-0.072724
-0.169628
0.165288
0.032700
-0.141433
-0.006498
-0.109310
-0.055485
0.137142
-0.042001
0.056098
0.125144
-0.087056
-0.020547
-0.108668
-0.316398
-0.033231
0.043077
0.020393
-0.194643
0.102765
-0.033426
0.092895
-0.014370
0.064413
-0.195477
0.181840
-0.292526
0.033073
-0.024124
-0.127455
-0.245964
-0.195166
-0.128976
-0.058841
-0.074718
-0.032584
-0.156151
0.057236
-0.225546
-0.083715
0.197737
-0.027985
-0.133618
-0.153318
0.021242
-0.104603
0.057120
-0.041726
-0.180101
0.040728
0.241192
-0.087449
-0.000315
-0.071697
-0.228144
-0.055831
0.013347
0.132587
-0.055301
0.007114
-0.148904
0.148323
0.338425
-0.077678
-0.338527
-0.198090
0.037935
0.032789
-0.036650
0.156594
-0.071458
-0.084597
-0.049772
0.166930
-0.109995
0.181977
0.281757
-0.112683
0.181652
0.052757
0.253944
-0.133285
-0.014280
0.080451
-0.062054
0.184601
-0.121490
-0.017421
0.195178
0.212168
-0.186883
-0.038051
0.215252
0.119604
-0.040447
-0.004745
-0.102234
-0.074106
-0.096267
-0.259987
0.070851
-0.025231
-0.136597
-0.039691
0.044803
0.020036
-0.118178
0.073712
-0.097806
-0.156307
0.043460
-0.054049
0.039020
0.000232
-0.078518
-0.137472
-0.115463
0.018516
0.172349
-0.150005
-0.080689
0.053834
-0.182825
-0.117251
-0.032523
-0.073701
-0.041814
0.025357
-0.202403
-0.236079
0.158593
0.066521
0.131346
-0.070620
0.207957
-0.136469
0.101704
-0.001996
-0.018034
0.011527
-0.045426
0.022778
0.158406
0.002718
-0.076900
0.059948
-0.086704
0.078672
-0.081968
-0.027581
0.031505
-0.129993
0.241476
-0.189101
0.134975
-0.086237
0.038818
0.129323
0.035988
0.022260
-0.027104
0.135705
0.033989
-0.112665
0.051501
0.044817
-0.097291
0.093391
-0.145740
-0.298138
-0.005411
0.071017
-0.001377
0.032539
-0.015032
-0.089653
-0.296170
0.012987
-0.128478
0.106955
-0.094089
-0.147489
0.055803
-0.057229
0.103315
-0.107145
-0.029436
0.009729
-0.105379
0.106791
0.009766
0.070601
0.231211
0.017895
-0.142644
-0.089630
-0.155739
-0.122520
0.178082
-0.072321
0.181271
-0.128515
-0.282209
-0.139966
0.124969
0.201250
0.178931
-0.221768
0.050250
-0.159911
-0.055619
-0.129304
-0.090194
0.095879
-0.164213
0.147379
0.074145
0.051662
0.090402
0.003646
0.050300
-0.030448
0.056216
-0.244381
-0.016605
0.043556
0.107151
-0.153084
-0.070187
0.116206
-0.140006
-0.055494
-0.156605
0.109739
0.213822
-0.228819
-0.043166
0.075518
-0.028914
-0.009503
0.153535
0.027623
-0.113248
-0.087393
-0.068449
-0.075637
0.219009
-0.102721
0.132793
-0.106832
0.103121
-0.081116
-0.065305
0.157560
0.222984
0.017613
-0.212513
-0.080646
0.013783
-0.025835
-0.043920
0.108440
0.119762
0.227985
0.019496
-0.139593
0.101123
-0.020982
0.104207
0.120638
0.089287
0.229633
0.114391
-0.044634
0.087316
0.197865
0.052931
0.199448
-0.000581
-0.027297
0.033212
0.025501
0.171539
0.034246
0.021755
0.034027
-0.081831
-0.163263
-0.046678
0.122786
-0.027127
0.169847
-0.082234
0.025012
0.115694
-0.162299
0.053166
-0.057369
0.036837
0.069105
-0.219127
0.262114
-0.163071
0.147833
-0.063493
-0.077159
-0.096251
-0.025115
0.171233
-0.097610
0.378499
-0.102314
0.011866
-0.004360
0.189366
-0.240269
0.054190
-0.050025
0.011578
-0.046014
-0.022419
-0.126549
-0.043414
0.024197
0.074223
-0.237020
-0.069474
-0.003072
-0.075677
-0.025910
0.180916
-0.046526
-0.035337
-0.167363
0.130353
-0.109456
0.090534
-0.035430
-0.027625
-0.149764
0.026734
0.095804
-0.008618
0.201970
-0.136932
0.021223
-0.037706
0.101786
0.197185
-0.286667
0.226022
-0.077263
0.112272
0.039412
0.009705
0.075870
-0.012022
0.084400
-0.096079
0.020236
0.008963
0.041661
-0.246047
0.008655
0.126197
0.014152
-0.009245
0.155468
0.226901
-0.160388
0.014547
0.008968
0.042806
-0.096704
-0.148263
-0.074210
-0.014716
0.203408
-0.138827
0.140504
0.137570
-0.016397
0.396578
-0.119006
0.154686
0.011023
0.183070
0.048213
-0.008985
0.246721
0.026671
0.161181
0.043929
0.114272
-0.009823
0.048464
0.108868
-0.033810
-0.031216
0.031927
-0.071657
-0.054930
-0.003619
-0.191356
-0.053670
0.193835
0.099192
-0.124201
-0.000862
-0.137193
-0.029489
-0.090601
-0.117882
-0.050770
-0.037976
0.144804
0.201281
-0.107659
-0.149076
0.047424
-0.060897
0.242448
-0.089873
-0.055398
0.174419
-0.247481
0.098082
-0.061868
-0.194694
0.034028
-0.058187
-0.129416
0.119048
-0.079430
-0.178860
0.016058
0.010997
0.017458
-0.090482
0.239656
0.082398
0.050583
-0.143450
0.057122
0.042084
0.199179
0.010314
-0.259306
0.008908
0.005295
0.075911
-0.031134
0.364753
0.058095
0.074499
-0.083831
0.104605
0.162491
-0.065359
-0.003650
-0.144147
-0.011169
-0.084148
0.095092
-0.015730
0.131655
0.072571
-0.149138
-0.348338
0.012684
-0.141527
-0.083173
0.118827
0.028923
0.127522
-0.151850
-0.161794
-0.132810
0.115947
0.190896
-0.008842
-0.033192
0.019925
0.037521
0.057247
0.057760
0.069170
-0.108190
0.042298
0.098491
-0.101404
0.076623
-0.101903
0.050143
0.317655
-0.322278
-0.163050
-0.281850
-0.072185
0.128356
0.095445
-0.087280
0.065525
-0.254677
0.137986
-0.119594
0.081651
-0.056407
0.077372
0.040009
-0.200483
0.231529
-0.026744
-0.059987
0.307252
0.074899
-0.017566
0.064687
0.140089
-0.075861
0.091372
-0.180004
0.047374
0.123123
-0.102540
0.011522
-0.041758
-0.106080
-0.000561
-0.070205
0.087681
0.036600
-0.110992
-0.045993
-0.155175
0.286483
0.010331
-0.039741
0.112691
0.033961
0.015158
-0.012946
0.122489
0.134163
0.039828
-0.054459
0.086836
-0.002030
-0.356067
-0.059546
-0.014688
0.045889
0.201069
0.157433
0.051422
-0.109437
0.058518
-0.161073
-0.025375
0.015559
-0.043338
0.057947
-0.001399
0.095181
0.036220
-0.099878
0.170527
0.007835
0.096417
-0.267961
-0.095100
0.316415
0.007414
0.151673
0.018372
0.095297
0.042506
0.116301
-0.164467
-0.010137
-0.238178
0.120210
-0.032806
0.216252
0.176296
-0.058616
0.063385
0.040881
0.151467
0.063382
0.070240
-0.033504
0.209124
0.094200
-0.173610
0.093689
0.117038
-0.021465
-0.141133
0.081961
0.001135
-0.025815
-0.014130
-0.054797
-0.024115
0.228665
-0.163146
-0.081827
-0.126122
-0.036264
0.249936
0.153685
-0.140328
-0.065734
-0.161054
-0.131495
0.064138
-0.060553
-0.021016
-0.015782
0.228118
0.021254
0.057446
-0.148945
-0.104015
0.216138
-0.109480
-0.008537
-0.024423
0.040938
-0.050729
-0.057716
-0.006542
0.062969
0.027660
0.055195
0.092633
-0.005174
-0.073485
0.330894
-0.029217
0.051386
-0.029001
0.172377
0.046700
-0.154529
-0.130891
0.114341
-0.089434
-0.090077
0.029360
-0.059194
-0.056609
0.038025
0.112700
-0.116567
-0.127178
-0.011296
-0.019454
-0.027326
0.054265
0.004938
-0.121117
0.031163
0.088844
0.156016
-0.240305
0.091108
0.183480
0.032374
0.089784
0.018385
-0.096560
0.099935
0.007020
0.016341
-0.234426
-0.068334
0.071410
0.014377
-0.054479
-0.041304
0.097723
0.116359
0.059058
-0.074071
0.046466
0.187331
-0.022353
0.145458
0.073118
0.087917
-0.028193
-0.108511
-0.167124
-0.016776
0.077575
0.054753
0.122349
-0.098660
-0.185512
-0.139787
0.265816
0.085424
0.102307
0.119474
-0.060395
0.055685
-0.169212
-0.041117
-0.120241
0.068061
0.113577
-0.056621
-0.005612
0.034050
-0.055174
0.144329
-0.044088
0.154903
0.213411
-0.073891
0.030434
-0.014576
-0.117724
-0.127836
0.090048
0.000748
0.051741
0.286214
-0.063925
0.091085
0.128459
0.235858
-0.076151
-0.218659
-0.068248
0.033653
0.105264
0.092238
-0.018380
0.007557
-0.008444
0.064557
-0.057165
0.012122
0.303241
0.062425
-0.042421
-0.181720
0.073486
0.080497
0.150905
-0.072037
0.051287
-0.015067
-0.100286
-0.074705
-0.147865
-0.143627
0.012975
0.210847
-0.015641
-0.084855
-0.084746
0.029986
0.100572
0.032289
0.033331
-0.087238
0.011486
-0.089622
0.146395
0.030938
-0.100438
0.285002
0.059857
0.199750
-0.012661
0.203400
-0.140573
0.208823
-0.043336
0.023729
0.080230
0.101684
0.141285
-0.004165
0.124772
-0.222529
-0.023715
0.122497
-0.041578
-0.105872
-0.002387
-0.064642
0.043002
-0.001740
0.126571
-0.031712
-0.050687
0.114109
-0.237062
0.143667
0.067906
0.177597
-0.020382
-0.032666
0.136050
0.378111
-0.142050
-0.103317
0.072285
0.002401
-0.101716
0.011226
-0.146738
0.060930
0.001496
0.197074
0.048600
-0.059246
0.249077
-0.020141
0.071423
0.145760
-0.003823
0.025319
0.093409
0.095448
0.061990
-0.169412
-0.255690
-0.204790
0.002409
0.070213
0.061640
0.100223
0.081225
-0.013013
0.013647
-0.118288
-0.087510
-0.238083
-0.147160
0.019206
-0.044068
-0.087661
-0.149116
-0.064377
0.088825
-0.103378
-0.037595
0.092855
0.003858
0.042410
-0.023484
0.114389
0.149791
-0.288696
0.161014
0.091449
0.115889
-0.195782
-0.133010
-0.139298
-0.007025
0.162173
0.180062
-0.098821
0.102131
0.198270
-0.075153
-0.000005
-0.162786
0.243606
0.183554
0.075381
-0.105418
0.107379
0.100319
-0.000655
0.098893
-0.050279
0.150355
-0.227927
0.039845
0.031097
0.118927
-0.001847
0.008063
0.079500
-0.004286
-0.086726
0.166554
0.014708
0.059763
0.060656
0.030251
-0.015213
0.161024
0.116904
-0.163397
-0.128947
-0.092478
0.013162
0.154804
0.066177
0.129661
-0.196321
0.193121
-0.013434
0.075895
0.012423
-0.096616
0.025547
0.068792
0.150166
-0.045499
-0.038015
0.152254
-0.089596
-0.191273
-0.122274
0.140809
0.105940
0.061457
-0.234737
-0.212528
0.038506
0.100992
-0.051883
-0.002002
0.176606
-0.117927
-0.065835
-0.094272
0.205114
-0.014512
0.027573
-0.033576
0.022825
0.064788
-0.039333
-0.114851
-0.373357
0.003346
-0.095688
0.163319
-0.035493
0.022200
0.064883
0.115319
0.008591
0.014279
-0.197781
-0.149641
-0.050065
0.019735
0.016584
-0.002991
0.095243
0.154997
-0.132202
-0.084385
0.044459
-0.084503
0.118943
0.003354
0.109201
0.002320
0.191017
-0.105202
-0.056576
-0.186700
-0.087939
-0.160381
-0.198930
-0.152997
-0.168385
-0.123326
-0.127016
0.171864
-0.085731
-0.148777
-0.022232
-0.157560
-0.094248
0.201420
0.062294
0.147945
0.093421
0.078899
0.033005
0.068917
-0.009928
0.030465
0.028606
-0.020351
-0.006047
0.057500
0.019751
-0.119064
-0.057666
0.009732
0.039194
-0.129823
0.042683
0.112334
-0.203845
-0.110842
-0.144743
0.282318
-0.024340
-0.042681
0.261233
-0.109050
-0.029165
0.162214
0.168051
0.015145
0.027364
-0.104462
0.013021
0.017895
-0.150763
-0.064852
0.120392
-0.029939
0.277889
-0.209168
0.194544
-0.115661
0.008812
0.134314
-0.023703
-0.066680
0.080343
-0.232260
0.027255
-0.005636
0.120224
-0.049367
0.213458
-0.037233
-0.099708
-0.123811
-0.324641
0.147705
0.073824
-0.025346
-0.029632
-0.189058
-0.105919
0.077725
0.228985
0.068584
-0.314548
-0.111881
-0.225399
0.174728
-0.212728
-0.138317
-0.059646
-0.293408
-0.078824
0.035220
0.260311
-0.008628
-0.047075
-0.042319
0.127104
-0.123509
0.121562
0.113422
-0.147546
-0.026438
-0.074316
0.000461
-0.350398
-0.049068
0.081565
0.084615
-0.060475
-0.098112
0.179846
-0.181774
-0.092945
-0.134401
0.113999
-0.238719
0.091436
0.105321
-0.056519
0.230612
0.018520
-0.119898
0.095218
-0.200030
-0.194343
-0.129020
-0.125801
0.023262
-0.016493
0.099157
0.091001
-0.066081
-0.001504
0.070095
0.051106
-0.015482
0.061517
0.022561
-0.005197
0.017319
-0.070209
0.304243
0.090745
-0.130095
0.112266
0.111154
0.009430
0.101614
-0.211378
-0.014875
0.033366
0.125030
-0.126910
0.141617
0.347849
-0.011425
-0.016163
0.240569
-0.188448
-0.049084
0.101691
-0.090697
-0.098924
0.251323
-0.163204
-0.049486
-0.064897
0.233201
0.122181
-0.189173
0.043231
-0.128553
-0.046549
-0.015785
-0.018733
0.100974
-0.107919
-0.009212
0.350546
-0.155790
0.114092
-0.018816
-0.039517
-0.057965
-0.169795
0.044491
-0.024780
-0.129537
0.154613
0.096827
-0.011925
-0.040393
0.172776
-0.249122
0.019769
-0.057768
0.060312
-0.361483
-0.062234
-0.272395
0.066431
0.085896
0.115821
-0.014123
-0.036593
-0.168266
0.033606
0.094270
0.064632
0.222291
-0.151082
0.240610
-0.007431
-0.153207
-0.137927
0.021640
0.259813
-0.137539
0.048964
-0.108472
0.052611
-0.153139
0.000230
-0.259980
0.039161
-0.085560
0.074718
0.040911
-0.153611
-0.195845
-0.077149
0.042553
0.101964
0.182011
-0.091320
-0.183595
0.008493
0.133427
-0.075155
-0.125286
0.137815
0.134076
-0.060478
-0.020664
-0.146596
-0.021090
0.062616
0.061912
-0.071600
0.091419
-0.127945
-0.041000
-0.089684
-0.139465
0.075986
-0.102115
0.146474
-0.009354
-0.167028
-0.053659
-0.314571
0.077932
-0.039498
0.047736
0.126266
-0.267311
0.127262
0.108723
-0.126556
-0.212208
0.154273
-0.427759
0.169740
-0.329193
0.019210
0.113651
0.084362
-0.177896
-0.043636
-0.091274
-0.048636
0.008282
0.146601
-0.047125
-0.013157
-0.026843
0.087949
-0.287757
0.076753
-0.010041
0.014833
-0.137042
-0.156590
0.182858
0.006146
0.100760
-0.078608
0.138525
0.190840
-0.121382
0.208827
0.166258
0.021423
0.042542
-0.164582
-0.037850
0.111506
-0.176584
0.086570
0.034420
0.223950
-0.131881
0.048332
0.099628
-0.182676
-0.019547
-0.178414
-0.075499
-0.169283
0.253228
-0.097624
0.005060
0.161491
-0.073594
0.088147
0.016553
-0.086377
-0.098867
0.006825
-0.013891
0.155080
-0.050991
0.030504
0.100677
-0.085355
-0.255534
0.075352
-0.029153
-0.015193
0.100560
0.066079
-0.013852
-0.038650
0.037808
-0.039653
-0.135834
-0.055028
0.189466
-0.146439
-0.230657
-0.078665
-0.086117
0.142779
0.043764
-0.110065
0.115584
-0.033797
0.056512
0.027682
-0.058565
0.071702
-0.087405
-0.225298
0.134587
0.099669
0.024793
-0.110011
0.181633
-0.141089
-0.059592
-0.080236
0.004486
0.157340
0.028087
0.091320
0.031798
0.011754
0.153390
0.075643
-0.195918
0.068161
0.000613
-0.142896
-0.050506
0.054174
0.090640
-0.154940
0.151912
0.060293
0.295221
-0.094698
-0.139824
-0.143726
0.213697
-0.078067
-0.031775
-0.073201
-0.036842
0.099666
-0.189037
0.183344
0.086203
0.124472
-0.260416
0.055914
-0.118616
-0.083627
-0.069356
-0.014657
-0.241366
-0.038551
-0.129108
0.313911
-0.151643
-0.059366
-0.035277
-0.132556
0.055863
-0.071093
-0.136215
-0.009021
-0.077149
0.014454
-0.123835
0.276587
0.075203
0.027089
-0.133953
0.148617
-0.135297
0.000935
0.186557
-0.048503
-0.079367
-0.117346
0.137356
0.034027
0.034718
-0.028619
-0.042226
0.006143
-0.076684
-0.053802
0.003572
0.002519
0.283478
-0.052569
0.098343
-0.016285
-0.110034
-0.005518
0.115864
-0.080059
-0.003983
0.119562
-0.025225
0.005459
-0.152640
-0.118444
0.090014
0.094692
0.262002
0.030110
-0.107518
0.284471
0.079261
0.022320
0.114763
0.162629
-0.182231
0.172706
-0.206577
-0.010884
-0.034936
0.148281
-0.070033
-0.003116
-0.069329
-0.117250
-0.124333
0.021840
0.073541
-0.022432
-0.007189
-0.317192
-0.064698
0.054968
0.077887
0.048622
0.175172
-0.029815
-0.098546
0.149885
-0.096761
-0.133945
-0.075601
-0.071532
-0.048520
-0.026766
-0.007981
0.242207
-0.081581
-0.115853
-0.106910
0.188638
0.048229
0.056861
-0.045610
-0.294998
-0.003368
-0.020851
0.049037
0.119011
-0.003489
0.145779
-0.089793
0.197524
0.031324
0.096265
-0.040794
-0.049071
0.081941
-0.128727
0.010762
0.072531
-0.055556
0.114915
0.186674
-0.200679
-0.083842
0.191226
0.051976
0.025837
-0.226319
0.038398
0.111361
0.130824
-0.074011
-0.092329
0.106861
-0.119373
-0.057027
-0.071064
-0.061184
0.064035
0.225764
0.152490
0.038959
-0.271952
-0.019516
-0.085914
-0.112248
-0.017758
0.058000
0.136446
-0.289499
-0.095823
-0.053877
-0.107696
-0.143189
0.038573
-0.006078
-0.148615
0.039099
-0.073019
-0.052491
-0.229413
-0.119364
-0.084827
-0.052086
-0.197362
0.075826
0.019340
0.025221
0.113432
Layer 2 weights:
0.111884
-0.004890
0.032328
0.011674
-0.024162
-0.125258
0.076566
-0.029923
0.015143
0.009356
0.070297
0.065770
0.034872
-0.009882
0.004703
0.019388
-0.006696
0.021501
0.071150
0.049265
0.065130
0.001927
0.031034
0.042824
1.113770
1.014775
1.073207
1.008731
1.023164
0.952890
1.110901
0.995356
1.053581
1.024276
1.089157
1.067091
1.061409
0.982035
1.014603
1.057780
1.027109
1.037312
1.073611
1.042513
1.075428
1.037945
1.051834
1.075754
-0.008206
0.045411
0.038010
-0.008293
0.030496
0.038880
0.002769
-0.029888
0.002058
0.018140
0.033514
-0.011223
-0.012425
0.016823
0.057334
0.062031
-0.029270
-0.012100
0.034275
-0.003284
0.058750
0.018863
-0.040165
-0.039056
0.085076
0.080427
0.137501
0.057553
0.043357
0.088809
0.087569
0.134424
0.138164
0.057236
0.137874
0.170974
0.073567
0.039815
0.037690
0.081658
0.057266
0.131874
0.136241
0.119221
0.116432
0.086033
0.112678
0.139286
Layer 3 weights:
-0.190502
0.077545
0.262524
0.222475
0.130315
0.015665
0.281836
-0.059160
0.371003
-0.164776
0.002080
-0.163996
-0.235774
0.031166
-0.108819
-0.112760
0.049177
0.295377
0.280927
0.052309
0.492037
-0.425227
0.273402
0.270735
-0.159565
-0.072002
-0.157851
-0.170103
0.268469
-0.011043
-0.066653
-0.280537
0.057025
-0.031428
0.452279
-0.065671
0.566000
-0.221074
-0.076274
0.136002
0.224268
0.269676
-0.388968
0.228172
-0.396476
-0.367948
0.066632
-0.089261
-0.063276
-0.198319
-0.332533
-0.075253
-0.384150
-0.045078
0.053243
0.005620
0.588522
0.534470
-0.107150
0.252429
-0.121665
0.223025
-0.344286
0.409644
0.288220
0.133178
0.240046
0.146544
0.003341
0.196956
-0.164699
-0.433579
-0.509244
-0.059903
-0.024711
0.130151
0.106829
-0.207407
-0.361653
-0.011799
-0.203229
0.542004
0.101072
-0.307027
-0.026987
0.124013
-0.330576
0.125952
-0.343598
0.190884
0.288010
-0.398131
0.269781
0.068389
0.259008
0.375265
0.235919
-0.065995
-0.341602
0.030516
-0.080150
-0.012828
-0.313835
0.110094
-0.068175
0.275322
0.409713
-0.161845
0.263591
0.027943
-0.040500
-0.129722
-0.105772
-0.122348
-0.388950
0.211663
0.043172
0.413341
-0.221454
0.237779
-0.266098
-0.317496
0.423841
0.424551
-0.030250
-0.230627
0.277360
-0.077297
-0.227501
0.358609
0.178543
-0.220201
0.084651
0.270280
-0.064277
0.074467
0.273429
-0.469941
0.132069
-0.202315
0.128911
-0.376011
0.037443
-0.189138
-0.173456
-0.251959
0.082151
0.248416
0.208737
-0.089294
0.399479
-0.029935
0.083452
-0.281653
-0.120841
-0.025363
-0.036251
0.084819
-0.411316
0.309964
-0.344488
0.011929
0.502263
0.451738
-0.118031
0.518404
0.286826
-0.206727
-0.255498
-0.071600
0.285212
0.074114
-0.335771
-0.254283
-0.212273
0.114883
-0.046192
0.192500
-0.135630
0.128248
-0.416083
-0.160952
-0.339261
-0.083777
0.249105
-0.082535
0.350291
-0.069878
-0.178104
-0.399457
-0.118178
0.350859
-0.462111
0.103624
0.303013
-0.315924
-0.376719
-0.317885
-0.166215
0.282475
0.192790
0.079892
-0.164525
-0.342602
0.220578
0.010785
0.239848
0.309680
0.202296
0.249695
0.246675
0.284680
0.066013
-0.323048
0.185420
-0.076995
0.671778
-0.046392
0.059999
-0.119299
0.170339
-0.275249
-0.311041
0.162569
0.174462
0.251513
0.101403
0.122231
0.177007
0.129103
0.154861
0.194323
0.547489
-0.385559
0.018669
-0.001812
0.447469
-0.313843
-0.209371
-0.028122
-0.557692
0.260646
0.377335
-0.156690
0.071584
-0.166062
-0.111565
0.143254
-0.256721
0.105398
0.167234
-0.092650
-0.227213
0.343203
0.452111
0.167561
0.130938
-0.241206
-0.019138
0.188933
0.263563
0.247878
-0.048771
-0.152841
-0.317317
0.044939
0.141461
-0.026644
-0.365660
0.317750
0.201083
-0.447302
0.107980
0.364685
0.090445
-0.215362
-0.233270
0.213428
-0.266347
-0.258663
-0.309630
0.003324
0.177975
-0.462260
-0.146695
-0.080921
-0.073054
-0.056551
-0.110287
-0.156409
-0.159986
0.314428
0.051748
-0.511498
-0.169459
-0.094910
-0.397443
-0.315226
0.285691
0.211521
0.141262
0.115990
0.106935
0.265205
-0.088473
-0.250501
-0.321832
0.107361
-0.036537
0.449026
-0.197687
0.249105
0.313074
-0.068124
-0.160702
0.565254
0.435851
-0.045695
-0.037513
0.146615
0.243652
0.144160
0.142615
-0.368481
0.276884
-0.109767
-0.250010
-0.078172
-0.318006
0.436159
-0.246119
0.113671
-0.090276
-0.241322
0.189015
0.035973
-0.271492
-0.103955
0.457299
0.149309
-0.134200
0.210826
0.127686
-0.290776
0.268376
0.110412
0.059534
-0.118069
-0.298189
0.255616
-0.141903
0.159883
0.056100
0.255419
-0.084792
-0.202398
-0.265742
0.449630
0.033543
-0.191847
0.714621
0.220387
-0.031051
-0.091361
-0.171827
-0.390473
-0.178705
-0.108759
-0.315059
-0.062133
-0.034153
-0.285214
-0.371430
0.417359
0.050323
0.136085
0.285966
-0.086028
-0.482328
0.053904
-0.124244
-0.114078
0.395543
-0.223673
Layer 4 weights:
0.134290
0.212015
0.056787
0.131403
0.058700
0.111213
0.173157
0.241757
0.032544
0.140106
0.208827
0.121359
0.093239
0.122256
0.074018
0.066911
Layer 5 weights:
-0.286144
0.564378
-0.030118
0.097768
0.149999
-0.440714
-0.261364
-0.407526
0.227301
-0.048939
-0.369892
-0.015802
-0.301864
-0.022216
-0.486568
0.202454
0.071445
0.324241
0.068909
-0.055355
-0.015082
-0.239847
-0.532193
-0.211173
0.561591
0.231937
0.204331
-0.400954
0.175333
-0.027613
0.665712
0.222021
0.019262
0.263888
0.353080
-0.215995
0.157265
0.535270
0.030166
0.025804
-0.338920
-0.491094
0.094989
0.095155
-0.333779
0.163237
-0.190456
-0.043739
0.657043
-0.201309
0.080268
-0.254812
-0.020368
0.434982
0.275541
0.356455
-0.010021
0.083526
-0.144422
0.114232
0.389668
0.677669
-0.003954
0.714405
-0.067208
-0.123559
-0.334195
0.245693
-0.123628
-0.215512
-0.016036
-0.310601
0.412099
0.128348
0.039548
-0.115263
0.365987
0.362637
0.110968
0.296509
0.406511
-0.337560
0.368846
-0.020855
-0.294725
-0.284926
0.269002
-0.271672
-0.420381
0.342134
-0.458024
-0.410955
-0.025489
0.243396
0.228309
-0.216372
-0.160493
0.032080
-0.058118
0.294736
0.401970
0.037145
0.649529
0.068841
0.292793
-0.072008
-0.495704
-0.340444
0.248136
-0.099615
0.061662
-0.187867
0.625222
-0.430690
-0.085128
-0.062334
-0.348695
-0.175426
0.139314
0.023745
-0.173764
-0.306044
0.452251
-0.193336
0.046815
-0.465247
0.261854
-0.182598
0.034392
-0.274270
-0.410066
-0.011379
-0.430394
-0.249627
-0.237025
-0.352801
-0.487541
-0.028405
-0.235385
0.446532
0.666948
0.494248
-0.003673
-0.216458
Layer 6 weights:
-0.147405
-0.098515
0.045404
-0.030451
-0.014408
0.052740
-0.160485
-0.121168
0.212893
